#ifndef __MODEL_PARAMTERS_H__
#define __MODEL_PARAMTERS_H__

double model_0_weight[] = {0.1823656409978867, 0.0279242545366287, 0.0836775898933411, 0.1943343579769135, 0.0279322117567062, 0.0918684825301170, 0.0158259551972151, -0.0064414124935865, -0.1219257265329361, -0.2143959552049637, -0.1750596314668655, -0.2088889628648758, -0.1382367014884949, -0.0598527900874615, -0.3341955244541168, 0.1402231007814407, -0.1386666148900986, 0.0191879123449326, 0.0147124519571662, 0.0152234807610512, 0.3876309096813202, 0.1208174973726273, 0.1287275105714798, 0.4132668077945709, 0.1911495774984360, 0.3952670693397522, 0.2431983500719070, -0.0394102521240711, 0.0090257171541452, -0.1764570772647858, 0.0595896616578102, 0.1256680637598038, 0.0358037613332272, -0.0345152020454407, -0.1845708638429642, -0.0054577072151005, -0.0864948257803917, -0.1519861221313477, -0.0448239371180534, -0.1405486166477203, 0.1261753439903259, -0.1332014650106430, 0.2193212956190109, -0.1525913476943970, 0.1512712836265564, -0.0847689881920815, 0.1191036626696587, -0.0186705142259598, 0.0581479817628860, 0.0063736913725734, -0.2439598590135574, 0.2482013404369354, 0.1276645213365555, 0.1519582867622375, -0.1722456365823746, 0.2702929079532623, -0.2797844409942627, -0.2214077711105347, 0.1274896860122681, -0.3945015966892242, -0.1728297919034958, -0.0890175625681877, -0.3157636821269989, 0.2122940570116043};
double model_1_weight[] = {1.1114294528961182, 1.0970811843872070, 1.1679917573928833, 0.9925594925880432, 1.1238336563110352, 1.0074850320816040, 1.0406229496002197, 1.0121612548828125};
double model_1_bias[] = {0.0159811228513718, -0.0176529940217733, 0.0077323787845671, -0.0341861173510551, -0.0202176570892334, 0.1251908093690872, 0.3397362828254700, -0.0195702128112316};
double model_1_running_mean[] = {0.0008832320454530, -0.0014899388188496, 0.0015523652546108, 0.0015385107835755, -0.0010962241794914, 0.0004160639946349, 0.0006176292663440, -0.0012267741840333};
double model_1_running_var[] = {0.0018994525307789, 0.0061488137580454, 0.0068399379961193, 0.0042947041802108, 0.0018175183795393, 0.0004719548451249, 0.0015643571969122, 0.0070618875324726};
double output_weight[] = {-0.1779389828443527, -0.1100085377693176, -0.0415627583861351, -0.1118380576372147, -0.1172081455588341, -0.0627289712429047, -0.1127797514200211, -0.0856406390666962, -0.0577433928847313, -0.0716306120157242, 0.0047418363392353, -0.0095680188387632, -0.0719435513019562, -0.0659830272197723, 0.0062558529898524, 0.0177375636994839, -0.0545644387602806, -0.0518244542181492, -0.0473382920026779, 0.0098573528230190, -0.0202518031001091, 0.0291296057403088, -0.0755242481827736, -0.0093856379389763, -0.0140690840780735, -0.0561582893133163, -0.0860816165804863, -0.0651440098881721, -0.1087310090661049, -0.1067368537187576, -0.1327109634876251, -0.0692439451813698, -0.1309678405523300, -0.0446368083357811, -0.0450043417513371, -0.0497884489595890, -0.0777707770466805, -0.0430535711348057, -0.0460231266915798, -0.0632314905524254, -0.1266845613718033, -0.0704183652997017, -0.0341455303132534, -0.0919301286339760, -0.0716624706983566, -0.0459765084087849, -0.0962985232472420, -0.0167430005967617, -0.0426419414579868, 0.0225252788513899, -0.0702000856399536, -0.0903889834880829, -0.0063719283789396, -0.0852047428488731, -0.0110957752913237, -0.1083149388432503, -0.0848509147763252, -0.0526487939059734, -0.0699479803442955, -0.1052301898598671, -0.0908508896827698, -0.1333527565002441, -0.0843755751848221, -0.0690786615014076, -0.1318917870521545, -0.1235010847449303, -0.0500981621444225, -0.0873352736234665, -0.0996239334344864, -0.0977076068520546, -0.0184378270059824, -0.0245237573981285, -0.0863284543156624, -0.0324251949787140, -0.0271623935550451, -0.0527966953814030, -0.1073198467493057, -0.0409110262989998, -0.0857273861765862, -0.0307643022388220, -0.0451382100582123, -0.0484071969985962, -0.0476636290550232, -0.0723395273089409, -0.0863227769732475, -0.0766289457678795, -0.0597092695534229, -0.1078008487820625, -0.1190589815378189, -0.1114977672696114, -0.0367868021130562, -0.0611140690743923, -0.0091066593304276, 0.0231586117297411, 0.0399626493453979, -0.0028540925122797, -0.0111749535426497, -0.0420520715415478, 0.0249648410826921, -0.0003741246764548, 0.0582642816007137, 0.0300065446645021, -0.0172962807118893, 0.0074800574220717, 0.0663781464099884, -0.0144457677379251, 0.0093102259561419, 0.0125906588509679, 0.0256030429154634, 0.0348663441836834, 0.0166001580655575, 0.0051766275428236, 0.0513302050530910, 0.0066705420613289, 0.0479067899286747, -0.0192568302154541, -0.0222138408571482, -0.0438326969742775, -0.0958200469613075, -0.0343834683299065, -0.0498418398201466, -0.1197084710001945, -0.0136499563232064, -0.0176459383219481, -0.0936349183320999, -0.0411321334540844, -0.0407165661454201, -0.0740359798073769, -0.1066121235489845, -0.0838653072714806, -0.0482232756912708, -0.0223811399191618, -0.0505255274474621, -0.0385494194924831, -0.0465968623757362, -0.0492626279592514, -0.0887579694390297, 0.0094058141112328, -0.0531847588717937, -0.0317126661539078, -0.0547470264136791, -0.0571321249008179, -0.0850429683923721, -0.0632304474711418, -0.0709775760769844, -0.0648336559534073, -0.0828189551830292, -0.0423075705766678, -0.0862787514925003, -0.1601375639438629, 0.0365425236523151, 0.0467938221991062, 0.0756213292479515, 0.0479318164288998, 0.0669779404997826, -0.0113543989136815, 0.0414499565958977, 0.0606839768588543, 0.1034050211310387, 0.0463792793452740, 0.0326926447451115, 0.0521423332393169, 0.0152609040960670, 0.0285094697028399, 0.0205315090715885, 0.0225190576165915, 0.0509238094091415, 0.0905678868293762, 0.0895414650440216, -0.0065560098737478, 0.0256544146686792, -0.0198254622519016, 0.0314153023064137, 0.0439600162208080, -0.0229296218603849, -0.0101001402363181, 0.0543748065829277, 0.0049802833236754, -0.0060679106973112, -0.0151541735976934, 0.0500645302236080, 0.0512659065425396, 0.0439012087881565, 0.1058086752891541, 0.0357354246079922, 0.0452088490128517, 0.1501720845699310, 0.0196718983352184, 0.0601917505264282, 0.0687050968408585, 0.0208478458225727, 0.0737380087375641, 0.0166544727981091, 0.0614883601665497, 0.0510474257171154, 0.0221786815673113, 0.0717277228832245, 0.0774902030825615, 0.0809328183531761, 0.0734970942139626, 0.1225797832012177, 0.0448440238833427, 0.0617972314357758, 0.0167692713439465, 0.1312530487775803, 0.0099046761170030, -0.0012407653266564, 0.0590796880424023, 0.0137239582836628, 0.0329433903098106, 0.0228043496608734, -0.0471668243408203, -0.0655936524271965, -0.0704696178436279, -0.0666031017899513, -0.1011062264442444, -0.0526938736438751, 0.0012733129551634, -0.0759727805852890, -0.0373487733304501, -0.0410329774022102, 0.0009421794675291, 0.0299346596002579, 0.0121282925829291, -0.0272281672805548, -0.0539372712373734, -0.0000688658183208, 0.0192409176379442, -0.0150779839605093, -0.0308964196592569, 0.0133841633796692, -0.0019608421716839, -0.0410645864903927, 0.0070857931859791, 0.0028688984457403, -0.0984568968415260, -0.0190989449620247, -0.0862069427967072, -0.1113564148545265, -0.0726338773965836, 0.1068084985017776, 0.0857605412602425, 0.0688549205660820, 0.1754915416240692, 0.1224845051765442, 0.0630372539162636, 0.0157122537493706, -0.0090707121416926, 0.0265513025224209, -0.0278074145317078, 0.0808440223336220, 0.0367824807763100, 0.0564588047564030, -0.0126002570614219, 0.0376620478928089, 0.0572417341172695, 0.0163518749177456, -0.0189223866909742, 0.1005958169698715, 0.0914376378059387, 0.0606630407273769, 0.0649221166968346, 0.0651902481913567, 0.0583997182548046, 0.0235932078212500, 0.0674026459455490, 0.0430109389126301, 0.0908718332648277, 0.1082632690668106, 0.1394304782152176, 0.0547718629240990, 0.0967632755637169, 0.0344820879399776, 0.1202773898839951, 0.0138430558145046, 0.1405288130044937, 0.0615780875086784, 0.0330039672553539, 0.1141296625137329, 0.1034773141145706, 0.0106764296069741, 0.0714583471417427, 0.0608913451433182, 0.0408930927515030, -0.0110782841220498, 0.0373340956866741, 0.0984247028827667, 0.0895942002534866, -0.0200026500970125, 0.0343526154756546, 0.0787678882479668, -0.0117320679128170, 0.0385898351669312, 0.0923908278346062, 0.0760824456810951, 0.0232059080153704, 0.0807841420173645, 0.0489873401820660, 0.0735854133963585, 0.0626111850142479, 0.1158536970615387, 0.0791075974702835, 0.1081851571798325, 0.1467893570661545, 0.0317683257162571, 0.0625491812825203, 0.1069947853684425, 0.0092865452170372, 0.1377580463886261, 0.0649119168519974, -0.0056977448984981, 0.0970041751861572, 0.0175060294568539, 0.0864445567131042, 0.1077158376574516, 0.0528249815106392, 0.0379364155232906, 0.1489178538322449, 0.0917834639549255, 0.0097037497907877, 0.0720787569880486, 0.0400626547634602, 0.0442883782088757, 0.1113435029983521, 0.0912241414189339, 0.1186605617403984, 0.1071743145585060, 0.1334841400384903, 0.1221587061882019, 0.1278102397918701, 0.0394100844860077, 0.0188220627605915, 0.0518628098070621, -0.0139624755829573, 0.0466910935938358, 0.0579327717423439, 0.0387629643082619, -0.0018227625405416, 0.0406619459390640, -0.0368271581828594, 0.0078639220446348, -0.0127186365425587, -0.0868242830038071, 0.0223686899989843, -0.0189771242439747, -0.0600950606167316, 0.0108559373766184, -0.0176642667502165, 0.0134915579110384, -0.0744742006063461, -0.0521882735192776, 0.0157407522201538, 0.0395317934453487, 0.0093896780163050, -0.0168709550052881, 0.0230203494429588, -0.0205744169652462, 0.0106908194720745, 0.0730916187167168, 0.0574705228209496, 0.1123630851507187, 0.1073126271367073, 0.0889199674129486, 0.1248450353741646, 0.1216642856597900, 0.0636562481522560, 0.0726376101374626, 0.0886225774884224, 0.0629602000117302, 0.0456713736057281, 0.0261959135532379, 0.0554754398763180, 0.0373457223176956, 0.1112891957163811, 0.0638725683093071, 0.0689627975225449, 0.0533995665609837, 0.0697039067745209, 0.0548312850296497, 0.0354631505906582, 0.0670689418911934, 0.0910506621003151, 0.0379244871437550, 0.0600608773529530, 0.0467625558376312, 0.1065079048275948, 0.0595281086862087, 0.1011720374226570, 0.1902375668287277, 0.0758132711052895, -0.0342067070305347, -0.0486575178802013, -0.0567437559366226, -0.0160204842686653, -0.0101196691393852, -0.0523543246090412, -0.0396603196859360, 0.0104042338207364, -0.0245252605527639, -0.0308109447360039, -0.0340642854571342, -0.0479830577969551, -0.0314500592648983, -0.0214463211596012, -0.0466987714171410, -0.0525461137294769, -0.0187966302037239, -0.0465013906359673, -0.0322742834687233, -0.0590679831802845, 0.0356828942894936, -0.0530583411455154, -0.0134344594553113, -0.0523878708481789, -0.0350800529122353, -0.0331557318568230, -0.0157759170979261, -0.0421123430132866, -0.0384383760392666, 0.0268132574856281, -0.0556469112634659, -0.0705852881073952, -0.0763226747512817, -0.0454515703022480, -0.1272159814834595, -0.1013311967253685, -0.0385214276611805, -0.0879706665873528, -0.0392712764441967, -0.1079421266913414, -0.0214142631739378, -0.0741089358925819, -0.0787776336073875, -0.0922046005725861, -0.0962259545922279, -0.0640732347965240, -0.0904340222477913, -0.0769434869289398, -0.0743879824876785, -0.0560322366654873, -0.0977697819471359, -0.0787227824330330, -0.0639061033725739, -0.0402714051306248, -0.0199914257973433, -0.0599693618714809, -0.0506780780851841, -0.0308977011591196, -0.0963655635714531, -0.0154857849702239, 0.0883604660630226, 0.0258675832301378, 0.0427708923816681, 0.0276300609111786, 0.0736007168889046, 0.0132383164018393, -0.0152384983375669, 0.0242878682911396, 0.0266807470470667, -0.0393196232616901, 0.0171268004924059, -0.0500952638685703, 0.0051024258136749, 0.0577824637293816, -0.0252517983317375, -0.0618117190897465, -0.0267121363431215, 0.0438207536935806, 0.0254438295960426, 0.0124756023287773, 0.0320122055709362, -0.0212643668055534, 0.0487122461199760, 0.0574505776166916, 0.0248851552605629, 0.0051399380899966, -0.0357194170355797, -0.0156920850276947, 0.0756807401776314, 0.0522734560072422};
double output_bias[] = {0.8582251071929932, -0.9060128927230835};

#endif
